<?xml version="1.0"?>
<opencv_storage>
<cascade>
  <stageType>BOOST</stageType>
  <featureType>HAAR</featureType>
  <height>20</height>
  <width>20</width>
  <stageParams>
    <boostType>GAB</boostType>
    <minHitRate>9.9500000476837158e-01</minHitRate>
    <maxFalseAlarm>5.0000000000000000e-01</maxFalseAlarm>
    <weightTrimRate>9.4999999999999996e-01</weightTrimRate>
    <maxDepth>1</maxDepth>
    <maxWeakCount>100</maxWeakCount></stageParams>
  <featureParams>
    <maxCatCount>0</maxCatCount>
    <featSize>1</featSize>
    <mode>BASIC</mode></featureParams>
  <stageNum>20</stageNum>
  <stages>
    <!-- stage 0 -->
    <_>
      <maxWeakCount>3</maxWeakCount>
      <stageThreshold>-7.4146127700805664e-01</stageThreshold>
      <weakClassifiers>
        <_>
          <internalNodes>
            0 -1 14 2.3345166444778442e-01</internalNodes>
          <leafValues>
            -8.4711778163909912e-01 8.2860147953033447e-01</leafValues></_>
        <_>
          <internalNodes>
            0 -1 95 3.2010842114686966e-02</internalNodes>
          <leafValues>
            -7.0266091823577881e-01 7.9149585962295532e-01</leafValues></_>
        <_>
          <internalNodes>
            0 -1 54 -2.4135906249284744e-02</internalNodes>
          <leafValues>
            8.0831742286682129e-01 -5.4140049219131470e-01</leafValues></_></weakClassifiers></_>
    <!-- stage 1 -->
    <_>
      <maxWeakCount>5</maxWeakCount>
      <stageThreshold>-1.1455055475234985e+00</stageThreshold>
      <weakClassifiers>
        <_>
          <internalNodes>
            0 -1 153 -4.8814348876476288e-02</internalNodes>
          <leafValues>
            8.0495870113372803e-01 -6.3389831781387329e-01</leafValues></_>
        <_>
          <internalNodes>
            0 -1 70 1.8625674769282341e-02</internalNodes>
          <leafValues>
            -7.0622539520263672e-01 6.4913249015808105e-01</leafValues></_>
        <_>
          <internalNodes>
            0 -1 23 5.2159398794174194e-02</internalNodes>
          <leafValues>
            -8.8926792144775391e-01 5.0473421812057495e-01</leafValues></_>
        <_>
          <internalNodes>
            0 -1 0 1.7182931303977966e-01</internalNodes>
          <leafValues>
            -5.9713399410247803e-01 6.1336243152618408e-01</leafValues></_>
        <_>
          <internalNodes>
            0 -1 65 8.2588980149012059e-05</internalNodes>
          <leafValues>
            -9.6156042814254761e-01 3.2566216588020325e-01</leafValues></_></weakClassifiers></_>
    <!-- stage 2 -->
    <_>
      <maxWeakCount>5</maxWeakCount>
      <stageThreshold>-9.7558569908142090e-01</stageThreshold>
      <weakClassifiers>
        <_>
          <internalNodes>
            0 -1 13 8.9752987027168274e-02</internalNodes>
          <leafValues>
            -5.6298774480819702e-01 7.7925682067871094e-01</leafValues></_>
        <_>
          <internalNodes>
            0 -1 69 -3.5967878997325897e-02</internalNodes>
          <leafValues>
            7.5841295719146729e-01 -5.1090729236602783e-01</leafValues></_>
        <_>
          <internalNodes>
            0 -1 104 1.7951927147805691e-03</internalNodes>
          <leafValues>
            -7.7577167749404907e-01 4.4695079326629639e-01</leafValues></_>
        <_>
          <internalNodes>
            0 -1 140 3.6668090615421534e-03</internalNodes>
          <leafValues>
            -6.9398301839828491e-01 4.1802033782005310e-01</leafValues></_>
        <_>
          <internalNodes>
            0 -1 6 4.7153130173683167e-02</internalNodes>
          <leafValues>
            -5.6725203990936279e-01 4.5606067776679993e-01</leafValues></_></weakClassifiers></_>
    <!-- stage 3 -->
    <_>
      <maxWeakCount>7</maxWeakCount>
      <stageThreshold>-1.4184374809265137e+00</stageThreshold>
      <weakClassifiers>
        <_>
          <internalNodes>
            0 -1 134 4.2522780597209930e-02</internalNodes>
          <leafValues>
            -4.5081081986427307e-01 7.4197185039520264e-01</leafValues></_>
        <_>
          <internalNodes>
            0 -1 48 7.5259000062942505e-02</internalNodes>
          <leafValues>
            -4.6757966279983521e-01 6.7745774984359741e-01</leafValues></_>
        <_>
          <internalNodes>
            0 -1 26 1.1807202547788620e-01</internalNodes>
          <leafValues>
            -6.1933910846710205e-01 4.8501321673393250e-01</leafValues></_>
        <_>
          <internalNodes>
            0 -1 9 2.4085059762001038e-01</internalNodes>
          <leafValues>
            -6.8783986568450928e-01 3.7978309392929077e-01</leafValues></_>
        <_>
          <internalNodes>
            0 -1 116 -2.4481501895934343e-05</internalNodes>
          <leafValues>
            3.1270089745521545e-01 -8.6380201578140259e-01</leafValues></_>
        <_>
          <internalNodes>
            0 -1 74 -5.8249785797670484e-04</internalNodes>
          <leafValues>
            -8.3748638629913330e-01 2.2391054034233093e-01</leafValues></_>
        <_>
          <internalNodes>
            0 -1 63 2.7158807963132858e-02</internalNodes>
          <leafValues>
            2.2756513953208923e-01 -9.3998366594314575e-01</leafValues></_></weakClassifiers></_>
    <!-- stage 4 -->
    <_>
      <maxWeakCount>5</maxWeakCount>
      <stageThreshold>-1.1121318340301514e+00</stageThreshold>
      <weakClassifiers>
        <_>
          <internalNodes>
            0 -1 126 5.3259795531630516e-03</internalNodes>
          <leafValues>
            -4.6268656849861145e-01 7.1241116523742676e-01</leafValues></_>
        <_>
          <internalNodes>
            0 -1 37 6.2174830585718155e-02</internalNodes>
          <leafValues>
            -8.0255132913589478e-01 4.5600092411041260e-01</leafValues></_>
        <_>
          <internalNodes>
            0 -1 4 4.4469207525253296e-02</internalNodes>
          <leafValues>
            -5.0026339292526245e-01 5.7361716032028198e-01</leafValues></_>
        <_>
          <internalNodes>
            0 -1 154 -1.3891218695789576e-03</internalNodes>
          <leafValues>
            3.2686072587966919e-01 -7.9689174890518188e-01</leafValues></_>
        <_>
          <internalNodes>
            0 -1 42 3.0285767279565334e-03</internalNodes>
          <leafValues>
            -9.5403003692626953e-01 1.9170898199081421e-01</leafValues></_></weakClassifiers></_>
    <!-- stage 5 -->
    <_>
      <maxWeakCount>6</maxWeakCount>
      <stageThreshold>-9.0229594707489014e-01</stageThreshold>
      <weakClassifiers>
        <_>
          <internalNodes>
            0 -1 120 -7.7886534854769707e-03</internalNodes>
          <leafValues>
            -9.1959798336029053e-01 5.4995656013488770e-01</leafValues></_>
        <_>
          <internalNodes>
            0 -1 107 -8.4294099360704422e-04</internalNodes>
          <leafValues>
            4.4374650716781616e-01 -6.9763249158859253e-01</leafValues></_>
        <_>
          <internalNodes>
            0 -1 47 7.5835019350051880e-02</internalNodes>
          <leafValues>
            -4.9863445758819580e-01 5.8420556783676147e-01</leafValues></_>
        <_>
          <internalNodes>
            0 -1 119 1.0051246732473373e-02</internalNodes>
          <leafValues>
            -6.2690716981887817e-01 4.1815036535263062e-01</leafValues></_>
        <_>
          <internalNodes>
            0 -1 68 -2.2607563063502312e-02</internalNodes>
          <leafValues>
            4.4632124900817871e-01 -5.6334298849105835e-01</leafValues></_>
        <_>
          <internalNodes>
            0 -1 30 -2.8642485849559307e-03</internalNodes>
          <leafValues>
            3.4909740090370178e-01 -6.8338578939437866e-01</leafValues></_></weakClassifiers></_>
    <!-- stage 6 -->
    <_>
      <maxWeakCount>6</maxWeakCount>
      <stageThreshold>-1.0948835611343384e+00</stageThreshold>
      <weakClassifiers>
        <_>
          <internalNodes>
            0 -1 147 9.0396786108613014e-03</internalNodes>
          <leafValues>
            -7.4891775846481323e-01 5.5674707889556885e-01</leafValues></_>
        <_>
          <internalNodes>
            0 -1 21 -1.7314990982413292e-02</internalNodes>
          <leafValues>
            3.7242454290390015e-01 -6.9068342447280884e-01</leafValues></_>
        <_>
          <internalNodes>
            0 -1 152 -1.1721263080835342e-01</internalNodes>
          <leafValues>
            5.1613324880599976e-01 -4.6740320324897766e-01</leafValues></_>
        <_>
          <internalNodes>
            0 -1 85 1.5772634651511908e-04</internalNodes>
          <leafValues>
            2.0871624350547791e-01 -9.5178991556167603e-01</leafValues></_>
        <_>
          <internalNodes>
            0 -1 83 -2.5178702548146248e-02</internalNodes>
          <leafValues>
            -9.2429232597351074e-01 1.9226168096065521e-01</leafValues></_>
        <_>
          <internalNodes>
            0 -1 102 1.4719413593411446e-02</internalNodes>
          <leafValues>
            1.7597818374633789e-01 -8.9452201128005981e-01</leafValues></_></weakClassifiers></_>
    <!-- stage 7 -->
    <_>
      <maxWeakCount>6</maxWeakCount>
      <stageThreshold>-8.7257331609725952e-01</stageThreshold>
      <weakClassifiers>
        <_>
          <internalNodes>
            0 -1 78 1.4991338364779949e-02</internalNodes>
          <leafValues>
            -4.6984571218490601e-01 6.2154000997543335e-01</leafValues></_>
        <_>
          <internalNodes>
            0 -1 8 1.7960987985134125e-02</internalNodes>
          <leafValues>
            -5.8842021226882935e-01 4.4132164120674133e-01</leafValues></_>
        <_>
          <internalNodes>
            0 -1 133 -8.2579301670193672e-04</internalNodes>
          <leafValues>
            2.6450294256210327e-01 -8.2066607475280762e-01</leafValues></_>
        <_>
          <internalNodes>
            0 -1 76 -3.7945367395877838e-02</internalNodes>
          <leafValues>
            4.4788154959678650e-01 -4.6175894141197205e-01</leafValues></_>
        <_>
          <internalNodes>
            0 -1 29 1.0662834160029888e-02</internalNodes>
          <leafValues>
            -9.3055701255798340e-01 2.2044853866100311e-01</leafValues></_>
        <_>
          <internalNodes>
            0 -1 40 4.2238276451826096e-02</internalNodes>
          <leafValues>
            2.0410540699958801e-01 -8.7345850467681885e-01</leafValues></_></weakClassifiers></_>
    <!-- stage 8 -->
    <_>
      <maxWeakCount>7</maxWeakCount>
      <stageThreshold>-9.0317583084106445e-01</stageThreshold>
      <weakClassifiers>
        <_>
          <internalNodes>
            0 -1 125 -1.7046292778104544e-03</internalNodes>
          <leafValues>
            5.7539314031600952e-01 -6.3940519094467163e-01</leafValues></_>
        <_>
          <internalNodes>
            0 -1 5 3.8065142929553986e-02</internalNodes>
          <leafValues>
            -4.9287778139114380e-01 5.0866025686264038e-01</leafValues></_>
        <_>
          <internalNodes>
            0 -1 56 -2.3054199293255806e-02</internalNodes>
          <leafValues>
            -9.1585832834243774e-01 2.1103607118129730e-01</leafValues></_>
        <_>
          <internalNodes>
            0 -1 99 1.5539573505520821e-02</internalNodes>
          <leafValues>
            2.3026299476623535e-01 -8.3373790979385376e-01</leafValues></_>
        <_>
          <internalNodes>
            0 -1 43 -3.6580157466232777e-03</internalNodes>
          <leafValues>
            -9.4391703605651855e-01 1.7747077345848083e-01</leafValues></_>
        <_>
          <internalNodes>
            0 -1 144 3.1050229445099831e-03</internalNodes>
          <leafValues>
            -5.1397526264190674e-01 3.5501429438591003e-01</leafValues></_>
        <_>
          <internalNodes>
            0 -1 60 1.0266326367855072e-02</internalNodes>
          <leafValues>
            1.8677546083927155e-01 -9.4793397188186646e-01</leafValues></_></weakClassifiers></_>
    <!-- stage 9 -->
    <_>
      <maxWeakCount>7</maxWeakCount>
      <stageThreshold>-7.3651725053787231e-01</stageThreshold>
      <weakClassifiers>
        <_>
          <internalNodes>
            0 -1 20 6.8779140710830688e-02</internalNodes>
          <leafValues>
            -3.6903375387191772e-01 6.6105377674102783e-01</leafValues></_>
        <_>
          <internalNodes>
            0 -1 143 2.2241703700274229e-03</internalNodes>
          <leafValues>
            -4.9544906616210938e-01 5.3126192092895508e-01</leafValues></_>
        <_>
          <internalNodes>
            0 -1 118 -4.2554945684969425e-04</internalNodes>
          <leafValues>
            2.6487532258033752e-01 -7.9775834083557129e-01</leafValues></_>
        <_>
          <internalNodes>
            0 -1 115 -2.7057842817157507e-04</internalNodes>
          <leafValues>
            -8.8458579778671265e-01 2.0624496042728424e-01</leafValues></_>
        <_>
          <internalNodes>
            0 -1 132 -6.9524580612778664e-03</internalNodes>
          <leafValues>
            -9.3754023313522339e-01 1.5387609601020813e-01</leafValues></_>
        <_>
          <internalNodes>
            0 -1 114 -1.0130107402801514e-01</internalNodes>
          <leafValues>
            2.4527579545974731e-01 -6.2272769212722778e-01</leafValues></_>
        <_>
          <internalNodes>
            0 -1 92 -2.7033004909753799e-02</internalNodes>
          <leafValues>
            3.2032713294029236e-01 -5.6294912099838257e-01</leafValues></_></weakClassifiers></_>
    <!-- stage 10 -->
    <_>
      <maxWeakCount>9</maxWeakCount>
      <stageThreshold>-1.0496865510940552e+00</stageThreshold>
      <weakClassifiers>
        <_>
          <internalNodes>
            0 -1 139 2.1434947848320007e-03</internalNodes>
          <leafValues>
            -7.0562767982482910e-01 5.4781055450439453e-01</leafValues></_>
        <_>
          <internalNodes>
            0 -1 127 3.0680445488542318e-03</internalNodes>
          <leafValues>
            -7.1086335182189941e-01 3.1854835152626038e-01</leafValues></_>
        <_>
          <internalNodes>
            0 -1 35 1.3232335448265076e-02</internalNodes>
          <leafValues>
            -6.6646260023117065e-01 2.8323951363563538e-01</leafValues></_>
        <_>
          <internalNodes>
            0 -1 103 4.3887052015634254e-05</internalNodes>
          <leafValues>
            -6.4567494392395020e-01 2.6492661237716675e-01</leafValues></_>
        <_>
          <internalNodes>
            0 -1 82 4.2811375111341476e-02</internalNodes>
          <leafValues>
            2.4258923530578613e-01 -8.6941409111022949e-01</leafValues></_>
        <_>
          <internalNodes>
            0 -1 137 -5.0361460307613015e-04</internalNodes>
          <leafValues>
            2.2428244352340698e-01 -7.1714770793914795e-01</leafValues></_>
        <_>
          <internalNodes>
            0 -1 155 -2.6346900267526507e-04</internalNodes>
          <leafValues>
            2.9639559984207153e-01 -6.4709967374801636e-01</leafValues></_>
        <_>
          <internalNodes>
            0 -1 19 -5.1309470087289810e-02</internalNodes>
          <leafValues>
            4.2280414700508118e-01 -4.1120460629463196e-01</leafValues></_>
        <_>
          <internalNodes>
            0 -1 73 -3.2456824555993080e-04</internalNodes>
          <leafValues>
            -8.7626093626022339e-01 1.9214451313018799e-01</leafValues></_></weakClassifiers></_>
    <!-- stage 11 -->
    <_>
      <maxWeakCount>10</maxWeakCount>
      <stageThreshold>-1.0547950267791748e+00</stageThreshold>
      <weakClassifiers>
        <_>
          <internalNodes>
            0 -1 97 -2.8243364067748189e-04</internalNodes>
          <leafValues>
            5.8176690340042114e-01 -5.9090906381607056e-01</leafValues></_>
        <_>
          <internalNodes>
            0 -1 109 2.0345252007246017e-02</internalNodes>
          <leafValues>
            -4.2534092068672180e-01 5.2965271472930908e-01</leafValues></_>
        <_>
          <internalNodes>
            0 -1 135 1.8817264586687088e-02</internalNodes>
          <leafValues>
            -5.7308733463287354e-01 3.6303460597991943e-01</leafValues></_>
        <_>
          <internalNodes>
            0 -1 18 3.9293589070439339e-03</internalNodes>
          <leafValues>
            -5.7727205753326416e-01 3.3039298653602600e-01</leafValues></_>
        <_>
          <internalNodes>
            0 -1 25 3.1386651098728180e-02</internalNodes>
          <leafValues>
            -9.4373524188995361e-01 1.5968796610832214e-01</leafValues></_>
        <_>
          <internalNodes>
            0 -1 123 -1.2197584146633744e-04</internalNodes>
          <leafValues>
            -7.4126744270324707e-01 1.8605813384056091e-01</leafValues></_>
        <_>
          <internalNodes>
            0 -1 46 1.3349209912121296e-02</internalNodes>
          <leafValues>
            -7.2758316993713379e-01 2.0725192129611969e-01</leafValues></_>
        <_>
          <internalNodes>
            0 -1 49 1.1293467879295349e-01</internalNodes>
          <leafValues>
            1.8564468622207642e-01 -8.3308964967727661e-01</leafValues></_>
        <_>
          <internalNodes>
            0 -1 31 -1.7862454056739807e-02</internalNodes>
          <leafValues>
            1.8447740375995636e-01 -7.0146089792251587e-01</leafValues></_>
        <_>
          <internalNodes>
            0 -1 129 2.2136578336358070e-03</internalNodes>
          <leafValues>
            -8.0438774824142456e-01 1.6696749627590179e-01</leafValues></_></weakClassifiers></_>
    <!-- stage 12 -->
    <_>
      <maxWeakCount>9</maxWeakCount>
      <stageThreshold>-9.8018765449523926e-01</stageThreshold>
      <weakClassifiers>
        <_>
          <internalNodes>
            0 -1 62 2.3481938987970352e-02</internalNodes>
          <leafValues>
            5.2590674161911011e-01 -8.2812500000000000e-01</leafValues></_>
        <_>
          <internalNodes>
            0 -1 57 -8.9612836018204689e-04</internalNodes>
          <leafValues>
            -6.7863631248474121e-01 4.1475325822830200e-01</leafValues></_>
        <_>
          <internalNodes>
            0 -1 7 1.2469649314880371e-02</internalNodes>
          <leafValues>
            -4.3265241384506226e-01 4.9917143583297729e-01</leafValues></_>
        <_>
          <internalNodes>
            0 -1 96 -4.2126455809921026e-04</internalNodes>
          <leafValues>
            -8.6489224433898926e-01 2.3682613670825958e-01</leafValues></_>
        <_>
          <internalNodes>
            0 -1 148 3.0158562585711479e-03</internalNodes>
          <leafValues>
            -7.2371900081634521e-01 2.5580665469169617e-01</leafValues></_>
        <_>
          <internalNodes>
            0 -1 117 4.8382702516391873e-04</internalNodes>
          <leafValues>
            -6.6392356157302856e-01 2.3815070092678070e-01</leafValues></_>
        <_>
          <internalNodes>
            0 -1 67 5.7254391722381115e-03</internalNodes>
          <leafValues>
            2.3949190974235535e-01 -6.3985276222229004e-01</leafValues></_>
        <_>
          <internalNodes>
            0 -1 64 3.0714226886630058e-03</internalNodes>
          <leafValues>
            -8.2239693403244019e-01 2.1622103452682495e-01</leafValues></_>
        <_>
          <internalNodes>
            0 -1 77 4.3201558291912079e-03</internalNodes>
          <leafValues>
            -4.4131526350975037e-01 3.6705702543258667e-01</leafValues></_></weakClassifiers></_>
    <!-- stage 13 -->
    <_>
      <maxWeakCount>10</maxWeakCount>
      <stageThreshold>-8.6064815521240234e-01</stageThreshold>
      <weakClassifiers>
        <_>
          <internalNodes>
            0 -1 71 -2.5030348915606737e-03</internalNodes>
          <leafValues>
            -7.6884424686431885e-01 5.2389228343963623e-01</leafValues></_>
        <_>
          <internalNodes>
            0 -1 12 -4.1527830064296722e-02</internalNodes>
          <leafValues>
            5.1285636425018311e-01 -4.3302136659622192e-01</leafValues></_>
        <_>
          <internalNodes>
            0 -1 121 -2.7440260164439678e-03</internalNodes>
          <leafValues>
            4.4834887981414795e-01 -5.1908862590789795e-01</leafValues></_>
        <_>
          <internalNodes>
            0 -1 28 1.1589083820581436e-02</internalNodes>
          <leafValues>
            -9.1679769754409790e-01 1.6620263457298279e-01</leafValues></_>
        <_>
          <internalNodes>
            0 -1 3 -2.4180188775062561e-03</internalNodes>
          <leafValues>
            -6.9090294837951660e-01 2.3825165629386902e-01</leafValues></_>
        <_>
          <internalNodes>
            0 -1 27 2.6940941810607910e-02</internalNodes>
          <leafValues>
            2.4611772596836090e-01 -6.8619763851165771e-01</leafValues></_>
        <_>
          <internalNodes>
            0 -1 122 1.0524068493396044e-03</internalNodes>
          <leafValues>
            -7.4351286888122559e-01 2.1630214154720306e-01</leafValues></_>
        <_>
          <internalNodes>
            0 -1 100 1.0520399548113346e-02</internalNodes>
          <leafValues>
            2.0989237725734711e-01 -7.0728117227554321e-01</leafValues></_>
        <_>
          <internalNodes>
            0 -1 128 7.8314717393368483e-04</internalNodes>
          <leafValues>
            -6.0789209604263306e-01 2.3871749639511108e-01</leafValues></_>
        <_>
          <internalNodes>
            0 -1 124 1.2736937031149864e-02</internalNodes>
          <leafValues>
            -7.0615524053573608e-01 1.4421592652797699e-01</leafValues></_></weakClassifiers></_>
    <!-- stage 14 -->
    <_>
      <maxWeakCount>10</maxWeakCount>
      <stageThreshold>-8.6593407392501831e-01</stageThreshold>
      <weakClassifiers>
        <_>
          <internalNodes>
            0 -1 72 9.7712157294154167e-03</internalNodes>
          <leafValues>
            5.1388889551162720e-01 -7.1717172861099243e-01</leafValues></_>
        <_>
          <internalNodes>
            0 -1 94 1.8223434686660767e-02</internalNodes>
          <leafValues>
            -3.4238308668136597e-01 6.0079330205917358e-01</leafValues></_>
        <_>
          <internalNodes>
            0 -1 61 1.9000970060005784e-03</internalNodes>
          <leafValues>
            -8.5024237632751465e-01 2.4352428317070007e-01</leafValues></_>
        <_>
          <internalNodes>
            0 -1 38 4.9658518284559250e-02</internalNodes>
          <leafValues>
            3.5847896337509155e-01 -5.6540662050247192e-01</leafValues></_>
        <_>
          <internalNodes>
            0 -1 151 1.9880877807736397e-03</internalNodes>
          <leafValues>
            -4.0243774652481079e-01 4.0729951858520508e-01</leafValues></_>
        <_>
          <internalNodes>
            0 -1 112 -5.6892994325608015e-04</internalNodes>
          <leafValues>
            -8.6072295904159546e-01 1.8811598420143127e-01</leafValues></_>
        <_>
          <internalNodes>
            0 -1 33 3.6277428269386292e-02</internalNodes>
          <leafValues>
            -7.0748895406723022e-01 2.0428729057312012e-01</leafValues></_>
        <_>
          <internalNodes>
            0 -1 101 -2.1654478041455150e-04</internalNodes>
          <leafValues>
            -8.9214009046554565e-01 1.1028052121400833e-01</leafValues></_>
        <_>
          <internalNodes>
            0 -1 79 2.2042063064873219e-03</internalNodes>
          <leafValues>
            -5.5283957719802856e-01 2.6017183065414429e-01</leafValues></_>
        <_>
          <internalNodes>
            0 -1 50 1.3137909770011902e-01</internalNodes>
          <leafValues>
            1.5835930407047272e-01 -8.6801016330718994e-01</leafValues></_></weakClassifiers></_>
    <!-- stage 15 -->
    <_>
      <maxWeakCount>8</maxWeakCount>
      <stageThreshold>-8.4328246116638184e-01</stageThreshold>
      <weakClassifiers>
        <_>
          <internalNodes>
            0 -1 51 8.0547243356704712e-02</internalNodes>
          <leafValues>
            6.1434978246688843e-01 -4.8051947355270386e-01</leafValues></_>
        <_>
          <internalNodes>
            0 -1 89 -2.3340573534369469e-03</internalNodes>
          <leafValues>
            2.4999329447746277e-01 -9.5603293180465698e-01</leafValues></_>
        <_>
          <internalNodes>
            0 -1 10 1.0505023412406445e-02</internalNodes>
          <leafValues>
            -2.7088248729705811e-01 8.1822311878204346e-01</leafValues></_>
        <_>
          <internalNodes>
            0 -1 91 -2.4173317942768335e-03</internalNodes>
          <leafValues>
            -8.8793438673019409e-01 2.3742562532424927e-01</leafValues></_>
        <_>
          <internalNodes>
            0 -1 45 7.1347681805491447e-03</internalNodes>
          <leafValues>
            -8.0623143911361694e-01 2.2389380633831024e-01</leafValues></_>
        <_>
          <internalNodes>
            0 -1 106 -1.4651006786152720e-03</internalNodes>
          <leafValues>
            2.5404036045074463e-01 -6.6752576828002930e-01</leafValues></_>
        <_>
          <internalNodes>
            0 -1 52 -2.3416290059685707e-03</internalNodes>
          <leafValues>
            4.8318433761596680e-01 -3.9134523272514343e-01</leafValues></_>
        <_>
          <internalNodes>
            0 -1 36 2.8013866394758224e-02</internalNodes>
          <leafValues>
            -8.8643842935562134e-01 2.5567778944969177e-01</leafValues></_></weakClassifiers></_>
    <!-- stage 16 -->
    <_>
      <maxWeakCount>9</maxWeakCount>
      <stageThreshold>-1.1432197093963623e+00</stageThreshold>
      <weakClassifiers>
        <_>
          <internalNodes>
            0 -1 53 7.4484683573246002e-03</internalNodes>
          <leafValues>
            5.4933333396911621e-01 -7.4666666984558105e-01</leafValues></_>
        <_>
          <internalNodes>
            0 -1 66 2.6981933042407036e-03</internalNodes>
          <leafValues>
            -6.7095863819122314e-01 3.6602923274040222e-01</leafValues></_>
        <_>
          <internalNodes>
            0 -1 39 -9.9414661526679993e-03</internalNodes>
          <leafValues>
            2.2151458263397217e-01 -7.6128143072128296e-01</leafValues></_>
        <_>
          <internalNodes>
            0 -1 145 4.5433882623910904e-03</internalNodes>
          <leafValues>
            -4.2306551337242126e-01 4.4743594527244568e-01</leafValues></_>
        <_>
          <internalNodes>
            0 -1 108 -2.9537105001509190e-04</internalNodes>
          <leafValues>
            2.0640943944454193e-01 -7.4411565065383911e-01</leafValues></_>
        <_>
          <internalNodes>
            0 -1 2 8.8555090129375458e-02</internalNodes>
          <leafValues>
            -6.4877104759216309e-01 2.5004461407661438e-01</leafValues></_>
        <_>
          <internalNodes>
            0 -1 111 4.3261297978460789e-03</internalNodes>
          <leafValues>
            -3.7392783164978027e-01 5.0179243087768555e-01</leafValues></_>
        <_>
          <internalNodes>
            0 -1 15 -9.8683908581733704e-03</internalNodes>
          <leafValues>
            5.9299707412719727e-01 -3.0452704429626465e-01</leafValues></_>
        <_>
          <internalNodes>
            0 -1 136 -3.8784870412200689e-04</internalNodes>
          <leafValues>
            3.3432802557945251e-01 -5.2323788404464722e-01</leafValues></_></weakClassifiers></_>
    <!-- stage 17 -->
    <_>
      <maxWeakCount>11</maxWeakCount>
      <stageThreshold>-1.1443698406219482e+00</stageThreshold>
      <weakClassifiers>
        <_>
          <internalNodes>
            0 -1 142 -2.0436116028577089e-04</internalNodes>
          <leafValues>
            -3.6186769604682922e-01 6.1119753122329712e-01</leafValues></_>
        <_>
          <internalNodes>
            0 -1 87 1.0448246030136943e-03</internalNodes>
          <leafValues>
            -4.3558219075202942e-01 4.3477937579154968e-01</leafValues></_>
        <_>
          <internalNodes>
            0 -1 41 3.3965528011322021e-02</internalNodes>
          <leafValues>
            -7.2324126958847046e-01 2.5241884589195251e-01</leafValues></_>
        <_>
          <internalNodes>
            0 -1 86 -3.1272109481506050e-04</internalNodes>
          <leafValues>
            2.6780691742897034e-01 -6.9129538536071777e-01</leafValues></_>
        <_>
          <internalNodes>
            0 -1 131 3.0438657850027084e-03</internalNodes>
          <leafValues>
            1.9977106153964996e-01 -7.3709255456924438e-01</leafValues></_>
        <_>
          <internalNodes>
            0 -1 24 -1.2552138417959213e-02</internalNodes>
          <leafValues>
            7.2701448202133179e-01 -2.4617040157318115e-01</leafValues></_>
        <_>
          <internalNodes>
            0 -1 16 1.2296827509999275e-02</internalNodes>
          <leafValues>
            -4.8244917392730713e-01 4.0151846408843994e-01</leafValues></_>
        <_>
          <internalNodes>
            0 -1 138 -5.1612441893666983e-04</internalNodes>
          <leafValues>
            3.2428574562072754e-01 -5.3679341077804565e-01</leafValues></_>
        <_>
          <internalNodes>
            0 -1 75 1.5460585243999958e-02</internalNodes>
          <leafValues>
            2.0377857983112335e-01 -9.2004555463790894e-01</leafValues></_>
        <_>
          <internalNodes>
            0 -1 146 -5.6853927671909332e-03</internalNodes>
          <leafValues>
            7.2905319929122925e-01 -2.5094041228294373e-01</leafValues></_>
        <_>
          <internalNodes>
            0 -1 80 -6.9463101681321859e-04</internalNodes>
          <leafValues>
            -7.4059784412384033e-01 3.1216004490852356e-01</leafValues></_></weakClassifiers></_>
    <!-- stage 18 -->
    <_>
      <maxWeakCount>13</maxWeakCount>
      <stageThreshold>-7.2875154018402100e-01</stageThreshold>
      <weakClassifiers>
        <_>
          <internalNodes>
            0 -1 17 7.2023794054985046e-02</internalNodes>
          <leafValues>
            6.1865711212158203e-01 -4.0987983345985413e-01</leafValues></_>
        <_>
          <internalNodes>
            0 -1 93 1.8514988478273153e-03</internalNodes>
          <leafValues>
            -5.7945632934570312e-01 3.8757309317588806e-01</leafValues></_>
        <_>
          <internalNodes>
            0 -1 110 1.6637301305308938e-03</internalNodes>
          <leafValues>
            -4.0183156728744507e-01 4.9434363842010498e-01</leafValues></_>
        <_>
          <internalNodes>
            0 -1 44 -7.4175637564621866e-05</internalNodes>
          <leafValues>
            2.3865325748920441e-01 -7.0750325918197632e-01</leafValues></_>
        <_>
          <internalNodes>
            0 -1 130 -1.0543580865487456e-03</internalNodes>
          <leafValues>
            4.1748943924903870e-01 -4.0667364001274109e-01</leafValues></_>
        <_>
          <internalNodes>
            0 -1 1 9.6508502960205078e-02</internalNodes>
          <leafValues>
            -5.7226908206939697e-01 3.0287119746208191e-01</leafValues></_>
        <_>
          <internalNodes>
            0 -1 105 -1.3589204754680395e-03</internalNodes>
          <leafValues>
            1.5273217856884003e-01 -8.2699626684188843e-01</leafValues></_>
        <_>
          <internalNodes>
            0 -1 84 -8.0576557666063309e-03</internalNodes>
          <leafValues>
            -8.1845682859420776e-01 1.8399688601493835e-01</leafValues></_>
        <_>
          <internalNodes>
            0 -1 113 -1.5183640643954277e-03</internalNodes>
          <leafValues>
            4.3035155534744263e-01 -4.1538447141647339e-01</leafValues></_>
        <_>
          <internalNodes>
            0 -1 149 -5.3244980517774820e-04</internalNodes>
          <leafValues>
            -6.4428758621215820e-01 2.1511858701705933e-01</leafValues></_>
        <_>
          <internalNodes>
            0 -1 81 -7.0274039171636105e-03</internalNodes>
          <leafValues>
            6.8204420804977417e-01 -2.4901770055294037e-01</leafValues></_>
        <_>
          <internalNodes>
            0 -1 141 -5.1135019020875916e-05</internalNodes>
          <leafValues>
            -4.2851933836936951e-01 3.8321644067764282e-01</leafValues></_>
        <_>
          <internalNodes>
            0 -1 34 8.2783736288547516e-02</internalNodes>
          <leafValues>
            -5.7097077369689941e-01 2.8558346629142761e-01</leafValues></_></weakClassifiers></_>
    <!-- stage 19 -->
    <_>
      <maxWeakCount>12</maxWeakCount>
      <stageThreshold>-1.0840694904327393e+00</stageThreshold>
      <weakClassifiers>
        <_>
          <internalNodes>
            0 -1 58 -9.9786669015884399e-03</internalNodes>
          <leafValues>
            -6.6580975055694580e-01 5.0151449441909790e-01</leafValues></_>
        <_>
          <internalNodes>
            0 -1 156 -9.4250799156725407e-04</internalNodes>
          <leafValues>
            2.6386854052543640e-01 -7.2276633977890015e-01</leafValues></_>
        <_>
          <internalNodes>
            0 -1 90 -5.0656741950660944e-04</internalNodes>
          <leafValues>
            2.6941034197807312e-01 -6.2583947181701660e-01</leafValues></_>
        <_>
          <internalNodes>
            0 -1 22 1.0694437660276890e-03</internalNodes>
          <leafValues>
            -6.1405879259109497e-01 2.7917686104774475e-01</leafValues></_>
        <_>
          <internalNodes>
            0 -1 55 1.8839076161384583e-02</internalNodes>
          <leafValues>
            -2.4127060174942017e-01 8.4124976396560669e-01</leafValues></_>
        <_>
          <internalNodes>
            0 -1 88 1.1106061749160290e-02</internalNodes>
          <leafValues>
            2.0721751451492310e-01 -8.0283588171005249e-01</leafValues></_>
        <_>
          <internalNodes>
            0 -1 59 -8.5763297975063324e-03</internalNodes>
          <leafValues>
            -9.4066238403320312e-01 1.5499562025070190e-01</leafValues></_>
        <_>
          <internalNodes>
            0 -1 98 2.9723753686994314e-04</internalNodes>
          <leafValues>
            2.0159879326820374e-01 -6.5175801515579224e-01</leafValues></_>
        <_>
          <internalNodes>
            0 -1 150 2.3726210929453373e-03</internalNodes>
          <leafValues>
            -5.2940440177917480e-01 2.7509784698486328e-01</leafValues></_>
        <_>
          <internalNodes>
            0 -1 11 -1.1646941304206848e-01</internalNodes>
          <leafValues>
            4.3892905116081238e-01 -3.7305557727813721e-01</leafValues></_>
        <_>
          <internalNodes>
            0 -1 130 -2.2262334823608398e-04</internalNodes>
          <leafValues>
            3.5626608133316040e-01 -3.8624548912048340e-01</leafValues></_>
        <_>
          <internalNodes>
            0 -1 32 -7.5594624504446983e-03</internalNodes>
          <leafValues>
            6.2800574302673340e-01 -2.4566210806369781e-01</leafValues></_></weakClassifiers></_></stages>
  <features>
    <_>
      <rects>
        <_>
          0 2 10 17 -1.</_>
        <_>
          5 2 5 17 2.</_></rects>
      <tilted>0</tilted></_>
    <_>
      <rects>
        <_>
          0 3 8 13 -1.</_>
        <_>
          4 3 4 13 2.</_></rects>
      <tilted>0</tilted></_>
    <_>
      <rects>
        <_>
          0 3 14 6 -1.</_>
        <_>
          7 3 7 6 2.</_></rects>
      <tilted>0</tilted></_>
    <_>
      <rects>
        <_>
          0 5 12 8 -1.</_>
        <_>
          4 5 4 8 3.</_></rects>
      <tilted>0</tilted></_>
    <_>
      <rects>
        <_>
          0 6 6 8 -1.</_>
        <_>
          3 6 3 8 2.</_></rects>
      <tilted>0</tilted></_>
    <_>
      <rects>
        <_>
          0 7 6 6 -1.</_>
        <_>
          3 7 3 6 2.</_></rects>
      <tilted>0</tilted></_>
    <_>
      <rects>
        <_>
          0 8 15 8 -1.</_>
        <_>
          5 8 5 8 3.</_></rects>
      <tilted>0</tilted></_>
    <_>
      <rects>
        <_>
          0 9 4 3 -1.</_>
        <_>
          2 9 2 3 2.</_></rects>
      <tilted>0</tilted></_>
    <_>
      <rects>
        <_>
          0 15 10 3 -1.</_>
        <_>
          5 15 5 3 2.</_></rects>
      <tilted>0</tilted></_>
    <_>
      <rects>
        <_>
          1 2 18 16 -1.</_>
        <_>
          7 2 6 16 3.</_></rects>
      <tilted>0</tilted></_>
    <_>
      <rects>
        <_>
          1 4 3 5 -1.</_>
        <_>
          2 4 1 5 3.</_></rects>
      <tilted>0</tilted></_>
    <_>
      <rects>
        <_>
          1 14 17 6 -1.</_>
        <_>
          1 17 17 3 2.</_></rects>
      <tilted>0</tilted></_>
    <_>
      <rects>
        <_>
          1 16 12 4 -1.</_>
        <_>
          1 18 12 2 2.</_></rects>
      <tilted>0</tilted></_>
    <_>
      <rects>
        <_>
          2 3 18 3 -1.</_>
        <_>
          8 3 6 3 3.</_></rects>
      <tilted>0</tilted></_>
    <_>
      <rects>
        <_>
          2 3 18 15 -1.</_>
        <_>
          8 3 6 15 3.</_></rects>
      <tilted>0</tilted></_>
    <_>
      <rects>
        <_>
          2 5 3 11 -1.</_>
        <_>
          3 5 1 11 3.</_></rects>
      <tilted>0</tilted></_>
    <_>
      <rects>
        <_>
          2 6 6 7 -1.</_>
        <_>
          4 6 2 7 3.</_></rects>
      <tilted>0</tilted></_>
    <_>
      <rects>
        <_>
          2 7 15 6 -1.</_>
        <_>
          7 7 5 6 3.</_></rects>
      <tilted>0</tilted></_>
    <_>
      <rects>
        <_>
          2 8 6 6 -1.</_>
        <_>
          4 8 2 6 3.</_></rects>
      <tilted>0</tilted></_>
    <_>
      <rects>
        <_>
          2 14 9 6 -1.</_>
        <_>
          2 17 9 3 2.</_></rects>
      <tilted>0</tilted></_>
    <_>
      <rects>
        <_>
          3 2 4 18 -1.</_>
        <_>
          3 8 4 6 3.</_></rects>
      <tilted>0</tilted></_>
    <_>
      <rects>
        <_>
          3 3 10 8 -1.</_>
        <_>
          3 3 5 4 2.</_>
        <_>
          8 7 5 4 2.</_></rects>
      <tilted>0</tilted></_>
    <_>
      <rects>
        <_>
          3 4 13 3 -1.</_>
        <_>
          3 5 13 1 3.</_></rects>
      <tilted>0</tilted></_>
    <_>
      <rects>
        <_>
          3 4 13 15 -1.</_>
        <_>
          3 9 13 5 3.</_></rects>
      <tilted>0</tilted></_>
    <_>
      <rects>
        <_>
          3 5 4 6 -1.</_>
        <_>
          3 5 2 3 2.</_>
        <_>
          5 8 2 3 2.</_></rects>
      <tilted>0</tilted></_>
    <_>
      <rects>
        <_>
          3 5 10 11 -1.</_>
        <_>
          8 5 5 11 2.</_></rects>
      <tilted>0</tilted></_>
    <_>
      <rects>
        <_>
          3 5 13 15 -1.</_>
        <_>
          3 10 13 5 3.</_></rects>
      <tilted>0</tilted></_>
    <_>
      <rects>
        <_>
          3 7 6 5 -1.</_>
        <_>
          6 7 3 5 2.</_></rects>
      <tilted>0</tilted></_>
    <_>
      <rects>
        <_>
          3 7 15 5 -1.</_>
        <_>
          8 7 5 5 3.</_></rects>
      <tilted>0</tilted></_>
    <_>
      <rects>
        <_>
          3 7 12 7 -1.</_>
        <_>
          9 7 6 7 2.</_></rects>
      <tilted>0</tilted></_>
    <_>
      <rects>
        <_>
          3 10 7 4 -1.</_>
        <_>
          3 12 7 2 2.</_></rects>
      <tilted>0</tilted></_>
    <_>
      <rects>
        <_>
          3 10 10 8 -1.</_>
        <_>
          3 14 10 4 2.</_></rects>
      <tilted>0</tilted></_>
    <_>
      <rects>
        <_>
          3 12 2 8 -1.</_>
        <_>
          3 12 1 4 2.</_>
        <_>
          4 16 1 4 2.</_></rects>
      <tilted>0</tilted></_>
    <_>
      <rects>
        <_>
          3 13 15 6 -1.</_>
        <_>
          8 13 5 6 3.</_></rects>
      <tilted>0</tilted></_>
    <_>
      <rects>
        <_>
          4 1 9 18 -1.</_>
        <_>
          4 7 9 6 3.</_></rects>
      <tilted>0</tilted></_>
    <_>
      <rects>
        <_>
          4 2 4 12 -1.</_>
        <_>
          4 8 4 6 2.</_></rects>
      <tilted>0</tilted></_>
    <_>
      <rects>
        <_>
          4 3 8 12 -1.</_>
        <_>
          8 3 4 12 2.</_></rects>
      <tilted>0</tilted></_>
    <_>
      <rects>
        <_>
          4 3 15 4 -1.</_>
        <_>
          9 3 5 4 3.</_></rects>
      <tilted>0</tilted></_>
    <_>
      <rects>
        <_>
          4 6 12 10 -1.</_>
        <_>
          8 6 4 10 3.</_></rects>
      <tilted>0</tilted></_>
    <_>
      <rects>
        <_>
          4 7 16 6 -1.</_>
        <_>
          12 7 8 6 2.</_></rects>
      <tilted>0</tilted></_>
    <_>
      <rects>
        <_>
          4 8 14 8 -1.</_>
        <_>
          11 8 7 8 2.</_></rects>
      <tilted>0</tilted></_>
    <_>
      <rects>
        <_>
          4 8 16 12 -1.</_>
        <_>
          4 12 16 4 3.</_></rects>
      <tilted>0</tilted></_>
    <_>
      <rects>
        <_>
          4 9 8 4 -1.</_>
        <_>
          8 9 4 4 2.</_></rects>
      <tilted>0</tilted></_>
    <_>
      <rects>
        <_>
          4 10 12 4 -1.</_>
        <_>
          8 10 4 4 3.</_></rects>
      <tilted>0</tilted></_>
    <_>
      <rects>
        <_>
          4 11 6 2 -1.</_>
        <_>
          4 12 6 1 2.</_></rects>
      <tilted>0</tilted></_>
    <_>
      <rects>
        <_>
          4 13 12 5 -1.</_>
        <_>
          8 13 4 5 3.</_></rects>
      <tilted>0</tilted></_>
    <_>
      <rects>
        <_>
          5 0 5 16 -1.</_>
        <_>
          5 8 5 8 2.</_></rects>
      <tilted>0</tilted></_>
    <_>
      <rects>
        <_>
          5 0 9 6 -1.</_>
        <_>
          5 3 9 3 2.</_></rects>
      <tilted>0</tilted></_>
    <_>
      <rects>
        <_>
          5 0 11 6 -1.</_>
        <_>
          5 3 11 3 2.</_></rects>
      <tilted>0</tilted></_>
    <_>
      <rects>
        <_>
          5 3 9 15 -1.</_>
        <_>
          5 8 9 5 3.</_></rects>
      <tilted>0</tilted></_>
    <_>
      <rects>
        <_>
          5 4 7 15 -1.</_>
        <_>
          5 9 7 5 3.</_></rects>
      <tilted>0</tilted></_>
    <_>
      <rects>
        <_>
          5 5 12 11 -1.</_>
        <_>
          9 5 4 11 3.</_></rects>
      <tilted>0</tilted></_>
    <_>
      <rects>
        <_>
          5 9 3 6 -1.</_>
        <_>
          5 11 3 2 3.</_></rects>
      <tilted>0</tilted></_>
    <_>
      <rects>
        <_>
          5 14 10 1 -1.</_>
        <_>
          10 14 5 1 2.</_></rects>
      <tilted>0</tilted></_>
    <_>
      <rects>
        <_>
          5 16 8 4 -1.</_>
        <_>
          5 18 8 2 2.</_></rects>
      <tilted>0</tilted></_>
    <_>
      <rects>
        <_>
          6 1 7 2 -1.</_>
        <_>
          6 2 7 1 2.</_></rects>
      <tilted>0</tilted></_>
    <_>
      <rects>
        <_>
          6 4 9 12 -1.</_>
        <_>
          6 10 9 6 2.</_></rects>
      <tilted>0</tilted></_>
    <_>
      <rects>
        <_>
          6 6 10 10 -1.</_>
        <_>
          11 6 5 10 2.</_></rects>
      <tilted>0</tilted></_>
    <_>
      <rects>
        <_>
          6 6 8 10 -1.</_>
        <_>
          6 11 8 5 2.</_></rects>
      <tilted>0</tilted></_>
    <_>
      <rects>
        <_>
          6 7 8 8 -1.</_>
        <_>
          10 7 4 8 2.</_></rects>
      <tilted>0</tilted></_>
    <_>
      <rects>
        <_>
          6 7 6 10 -1.</_>
        <_>
          6 12 6 5 2.</_></rects>
      <tilted>0</tilted></_>
    <_>
      <rects>
        <_>
          6 8 6 10 -1.</_>
        <_>
          9 8 3 10 2.</_></rects>
      <tilted>0</tilted></_>
    <_>
      <rects>
        <_>
          6 8 8 7 -1.</_>
        <_>
          10 8 4 7 2.</_></rects>
      <tilted>0</tilted></_>
    <_>
      <rects>
        <_>
          6 8 10 7 -1.</_>
        <_>
          11 8 5 7 2.</_></rects>
      <tilted>0</tilted></_>
    <_>
      <rects>
        <_>
          6 10 8 6 -1.</_>
        <_>
          10 10 4 6 2.</_></rects>
      <tilted>0</tilted></_>
    <_>
      <rects>
        <_>
          6 11 8 5 -1.</_>
        <_>
          10 11 4 5 2.</_></rects>
      <tilted>0</tilted></_>
    <_>
      <rects>
        <_>
          6 13 10 2 -1.</_>
        <_>
          11 13 5 2 2.</_></rects>
      <tilted>0</tilted></_>
    <_>
      <rects>
        <_>
          6 14 6 2 -1.</_>
        <_>
          9 14 3 2 2.</_></rects>
      <tilted>0</tilted></_>
    <_>
      <rects>
        <_>
          6 16 7 4 -1.</_>
        <_>
          6 18 7 2 2.</_></rects>
      <tilted>0</tilted></_>
    <_>
      <rects>
        <_>
          6 16 11 4 -1.</_>
        <_>
          6 18 11 2 2.</_></rects>
      <tilted>0</tilted></_>
    <_>
      <rects>
        <_>
          7 2 8 6 -1.</_>
        <_>
          7 4 8 2 3.</_></rects>
      <tilted>0</tilted></_>
    <_>
      <rects>
        <_>
          7 6 5 8 -1.</_>
        <_>
          7 10 5 4 2.</_></rects>
      <tilted>0</tilted></_>
    <_>
      <rects>
        <_>
          7 7 8 6 -1.</_>
        <_>
          11 7 4 6 2.</_></rects>
      <tilted>0</tilted></_>
    <_>
      <rects>
        <_>
          7 11 6 5 -1.</_>
        <_>
          10 11 3 5 2.</_></rects>
      <tilted>0</tilted></_>
    <_>
      <rects>
        <_>
          7 12 8 3 -1.</_>
        <_>
          11 12 4 3 2.</_></rects>
      <tilted>0</tilted></_>
    <_>
      <rects>
        <_>
          7 13 8 3 -1.</_>
        <_>
          11 13 4 3 2.</_></rects>
      <tilted>0</tilted></_>
    <_>
      <rects>
        <_>
          7 16 8 4 -1.</_>
        <_>
          7 18 8 2 2.</_></rects>
      <tilted>0</tilted></_>
    <_>
      <rects>
        <_>
          8 1 1 6 -1.</_>
        <_>
          8 3 1 2 3.</_></rects>
      <tilted>0</tilted></_>
    <_>
      <rects>
        <_>
          8 1 5 6 -1.</_>
        <_>
          8 3 5 2 3.</_></rects>
      <tilted>0</tilted></_>
    <_>
      <rects>
        <_>
          8 2 1 6 -1.</_>
        <_>
          8 4 1 2 3.</_></rects>
      <tilted>0</tilted></_>
    <_>
      <rects>
        <_>
          8 3 3 3 -1.</_>
        <_>
          9 3 1 3 3.</_></rects>
      <tilted>0</tilted></_>
    <_>
      <rects>
        <_>
          8 6 6 4 -1.</_>
        <_>
          10 6 2 4 3.</_></rects>
      <tilted>0</tilted></_>
    <_>
      <rects>
        <_>
          8 6 4 12 -1.</_>
        <_>
          8 10 4 4 3.</_></rects>
      <tilted>0</tilted></_>
    <_>
      <rects>
        <_>
          8 7 5 10 -1.</_>
        <_>
          8 12 5 5 2.</_></rects>
      <tilted>0</tilted></_>
    <_>
      <rects>
        <_>
          8 9 1 8 -1.</_>
        <_>
          8 13 1 4 2.</_></rects>
      <tilted>0</tilted></_>
    <_>
      <rects>
        <_>
          8 9 4 8 -1.</_>
        <_>
          8 13 4 4 2.</_></rects>
      <tilted>0</tilted></_>
    <_>
      <rects>
        <_>
          8 10 1 4 -1.</_>
        <_>
          8 12 1 2 2.</_></rects>
      <tilted>0</tilted></_>
    <_>
      <rects>
        <_>
          8 10 3 8 -1.</_>
        <_>
          9 10 1 8 3.</_></rects>
      <tilted>0</tilted></_>
    <_>
      <rects>
        <_>
          8 10 6 6 -1.</_>
        <_>
          11 10 3 6 2.</_></rects>
      <tilted>0</tilted></_>
    <_>
      <rects>
        <_>
          8 10 5 8 -1.</_>
        <_>
          8 14 5 4 2.</_></rects>
      <tilted>0</tilted></_>
    <_>
      <rects>
        <_>
          8 11 2 6 -1.</_>
        <_>
          8 13 2 2 3.</_></rects>
      <tilted>0</tilted></_>
    <_>
      <rects>
        <_>
          8 12 6 4 -1.</_>
        <_>
          11 12 3 4 2.</_></rects>
      <tilted>0</tilted></_>
    <_>
      <rects>
        <_>
          8 16 10 4 -1.</_>
        <_>
          8 18 10 2 2.</_></rects>
      <tilted>0</tilted></_>
    <_>
      <rects>
        <_>
          9 0 2 15 -1.</_>
        <_>
          9 5 2 5 3.</_></rects>
      <tilted>0</tilted></_>
    <_>
      <rects>
        <_>
          9 0 4 6 -1.</_>
        <_>
          9 2 4 2 3.</_></rects>
      <tilted>0</tilted></_>
    <_>
      <rects>
        <_>
          9 0 4 9 -1.</_>
        <_>
          9 3 4 3 3.</_></rects>
      <tilted>0</tilted></_>
    <_>
      <rects>
        <_>
          9 3 3 3 -1.</_>
        <_>
          10 3 1 3 3.</_></rects>
      <tilted>0</tilted></_>
    <_>
      <rects>
        <_>
          9 4 1 4 -1.</_>
        <_>
          9 6 1 2 2.</_></rects>
      <tilted>0</tilted></_>
    <_>
      <rects>
        <_>
          9 4 2 2 -1.</_>
        <_>
          9 5 2 1 2.</_></rects>
      <tilted>0</tilted></_>
    <_>
      <rects>
        <_>
          9 4 4 10 -1.</_>
        <_>
          9 9 4 5 2.</_></rects>
      <tilted>0</tilted></_>
    <_>
      <rects>
        <_>
          9 4 4 12 -1.</_>
        <_>
          9 10 4 6 2.</_></rects>
      <tilted>0</tilted></_>
    <_>
      <rects>
        <_>
          9 5 2 1 -1.</_>
        <_>
          10 5 1 1 2.</_></rects>
      <tilted>0</tilted></_>
    <_>
      <rects>
        <_>
          9 5 4 12 -1.</_>
        <_>
          9 11 4 6 2.</_></rects>
      <tilted>0</tilted></_>
    <_>
      <rects>
        <_>
          9 8 1 2 -1.</_>
        <_>
          9 9 1 1 2.</_></rects>
      <tilted>0</tilted></_>
    <_>
      <rects>
        <_>
          9 8 2 6 -1.</_>
        <_>
          9 10 2 2 3.</_></rects>
      <tilted>0</tilted></_>
    <_>
      <rects>
        <_>
          9 10 2 8 -1.</_>
        <_>
          9 14 2 4 2.</_></rects>
      <tilted>0</tilted></_>
    <_>
      <rects>
        <_>
          9 11 3 6 -1.</_>
        <_>
          9 13 3 2 3.</_></rects>
      <tilted>0</tilted></_>
    <_>
      <rects>
        <_>
          9 11 4 6 -1.</_>
        <_>
          9 13 4 2 3.</_></rects>
      <tilted>0</tilted></_>
    <_>
      <rects>
        <_>
          9 12 5 2 -1.</_>
        <_>
          9 13 5 1 2.</_></rects>
      <tilted>0</tilted></_>
    <_>
      <rects>
        <_>
          9 14 4 6 -1.</_>
        <_>
          9 16 4 2 3.</_></rects>
      <tilted>0</tilted></_>
    <_>
      <rects>
        <_>
          9 16 1 3 -1.</_>
        <_>
          9 17 1 1 3.</_></rects>
      <tilted>0</tilted></_>
    <_>
      <rects>
        <_>
          9 16 3 3 -1.</_>
        <_>
          9 17 3 1 3.</_></rects>
      <tilted>0</tilted></_>
    <_>
      <rects>
        <_>
          10 3 3 3 -1.</_>
        <_>
          11 3 1 3 3.</_></rects>
      <tilted>0</tilted></_>
    <_>
      <rects>
        <_>
          10 3 2 9 -1.</_>
        <_>
          11 3 1 9 2.</_></rects>
      <tilted>0</tilted></_>
    <_>
      <rects>
        <_>
          10 3 10 10 -1.</_>
        <_>
          15 3 5 10 2.</_></rects>
      <tilted>0</tilted></_>
    <_>
      <rects>
        <_>
          10 4 3 1 -1.</_>
        <_>
          11 4 1 1 3.</_></rects>
      <tilted>0</tilted></_>
    <_>
      <rects>
        <_>
          10 4 1 4 -1.</_>
        <_>
          10 6 1 2 2.</_></rects>
      <tilted>0</tilted></_>
    <_>
      <rects>
        <_>
          10 5 6 1 -1.</_>
        <_>
          12 5 2 1 3.</_></rects>
      <tilted>0</tilted></_>
    <_>
      <rects>
        <_>
          10 6 3 2 -1.</_>
        <_>
          10 7 3 1 2.</_></rects>
      <tilted>0</tilted></_>
    <_>
      <rects>
        <_>
          10 6 9 2 -1.</_>
        <_>
          13 6 3 2 3.</_></rects>
      <tilted>0</tilted></_>
    <_>
      <rects>
        <_>
          10 6 4 10 -1.</_>
        <_>
          10 11 4 5 2.</_></rects>
      <tilted>0</tilted></_>
    <_>
      <rects>
        <_>
          10 7 6 7 -1.</_>
        <_>
          12 7 2 7 3.</_></rects>
      <tilted>0</tilted></_>
    <_>
      <rects>
        <_>
          10 8 1 6 -1.</_>
        <_>
          10 10 1 2 3.</_></rects>
      <tilted>0</tilted></_>
    <_>
      <rects>
        <_>
          10 9 1 3 -1.</_>
        <_>
          10 10 1 1 3.</_></rects>
      <tilted>0</tilted></_>
    <_>
      <rects>
        <_>
          10 10 9 5 -1.</_>
        <_>
          13 10 3 5 3.</_></rects>
      <tilted>0</tilted></_>
    <_>
      <rects>
        <_>
          10 12 6 6 -1.</_>
        <_>
          10 12 3 3 2.</_>
        <_>
          13 15 3 3 2.</_></rects>
      <tilted>0</tilted></_>
    <_>
      <rects>
        <_>
          10 14 2 6 -1.</_>
        <_>
          10 16 2 2 3.</_></rects>
      <tilted>0</tilted></_>
    <_>
      <rects>
        <_>
          10 14 9 2 -1.</_>
        <_>
          13 14 3 2 3.</_></rects>
      <tilted>0</tilted></_>
    <_>
      <rects>
        <_>
          11 0 2 18 -1.</_>
        <_>
          11 9 2 9 2.</_></rects>
      <tilted>0</tilted></_>
    <_>
      <rects>
        <_>
          11 2 1 6 -1.</_>
        <_>
          11 4 1 2 3.</_></rects>
      <tilted>0</tilted></_>
    <_>
      <rects>
        <_>
          11 3 2 8 -1.</_>
        <_>
          11 3 1 4 2.</_>
        <_>
          12 7 1 4 2.</_></rects>
      <tilted>0</tilted></_>
    <_>
      <rects>
        <_>
          11 3 1 12 -1.</_>
        <_>
          11 9 1 6 2.</_></rects>
      <tilted>0</tilted></_>
    <_>
      <rects>
        <_>
          11 3 1 14 -1.</_>
        <_>
          11 10 1 7 2.</_></rects>
      <tilted>0</tilted></_>
    <_>
      <rects>
        <_>
          11 5 2 4 -1.</_>
        <_>
          11 7 2 2 2.</_></rects>
      <tilted>0</tilted></_>
    <_>
      <rects>
        <_>
          11 7 9 7 -1.</_>
        <_>
          14 7 3 7 3.</_></rects>
      <tilted>0</tilted></_>
    <_>
      <rects>
        <_>
          11 8 9 3 -1.</_>
        <_>
          14 8 3 3 3.</_></rects>
      <tilted>0</tilted></_>
    <_>
      <rects>
        <_>
          11 10 1 4 -1.</_>
        <_>
          11 12 1 2 2.</_></rects>
      <tilted>0</tilted></_>
    <_>
      <rects>
        <_>
          11 11 1 4 -1.</_>
        <_>
          11 13 1 2 2.</_></rects>
      <tilted>0</tilted></_>
    <_>
      <rects>
        <_>
          11 11 1 6 -1.</_>
        <_>
          11 13 1 2 3.</_></rects>
      <tilted>0</tilted></_>
    <_>
      <rects>
        <_>
          12 2 1 6 -1.</_>
        <_>
          12 4 1 2 3.</_></rects>
      <tilted>0</tilted></_>
    <_>
      <rects>
        <_>
          12 3 2 6 -1.</_>
        <_>
          12 5 2 2 3.</_></rects>
      <tilted>0</tilted></_>
    <_>
      <rects>
        <_>
          12 6 2 1 -1.</_>
        <_>
          13 6 1 1 2.</_></rects>
      <tilted>0</tilted></_>
    <_>
      <rects>
        <_>
          12 7 1 10 -1.</_>
        <_>
          12 12 1 5 2.</_></rects>
      <tilted>0</tilted></_>
    <_>
      <rects>
        <_>
          12 7 4 3 -1.</_>
        <_>
          14 7 2 3 2.</_></rects>
      <tilted>0</tilted></_>
    <_>
      <rects>
        <_>
          12 7 4 4 -1.</_>
        <_>
          14 7 2 4 2.</_></rects>
      <tilted>0</tilted></_>
    <_>
      <rects>
        <_>
          12 7 4 5 -1.</_>
        <_>
          14 7 2 5 2.</_></rects>
      <tilted>0</tilted></_>
    <_>
      <rects>
        <_>
          12 7 3 4 -1.</_>
        <_>
          12 9 3 2 2.</_></rects>
      <tilted>0</tilted></_>
    <_>
      <rects>
        <_>
          12 7 3 12 -1.</_>
        <_>
          12 11 3 4 3.</_></rects>
      <tilted>0</tilted></_>
    <_>
      <rects>
        <_>
          12 11 6 3 -1.</_>
        <_>
          14 11 2 3 3.</_></rects>
      <tilted>0</tilted></_>
    <_>
      <rects>
        <_>
          12 15 3 1 -1.</_>
        <_>
          13 15 1 1 3.</_></rects>
      <tilted>0</tilted></_>
    <_>
      <rects>
        <_>
          13 3 1 6 -1.</_>
        <_>
          13 5 1 2 3.</_></rects>
      <tilted>0</tilted></_>
    <_>
      <rects>
        <_>
          13 6 2 5 -1.</_>
        <_>
          14 6 1 5 2.</_></rects>
      <tilted>0</tilted></_>
    <_>
      <rects>
        <_>
          14 4 6 15 -1.</_>
        <_>
          17 4 3 15 2.</_></rects>
      <tilted>0</tilted></_>
    <_>
      <rects>
        <_>
          14 6 6 10 -1.</_>
        <_>
          17 6 3 10 2.</_></rects>
      <tilted>0</tilted></_>
    <_>
      <rects>
        <_>
          14 11 2 6 -1.</_>
        <_>
          14 14 2 3 2.</_></rects>
      <tilted>0</tilted></_>
    <_>
      <rects>
        <_>
          15 10 1 6 -1.</_>
        <_>
          15 13 1 3 2.</_></rects>
      <tilted>0</tilted></_>
    <_>
      <rects>
        <_>
          16 10 2 5 -1.</_>
        <_>
          17 10 1 5 2.</_></rects>
      <tilted>0</tilted></_></features></cascade>
</opencv_storage>
